svm_type c_svc
kernel_type rbf
gamma 6
nr_class 16
total_sv 16
rho 0 0 0 0 0 0 0 0 0 0 0 0 0 0 0 0 0 0 0 0 0 0 0 0 0 0 0 0 0 0 0 0 0 0 0 0 0 0 0 0 0 0 0 0 0 0 0 0 0 0 0 0 0 0 0 0 0 0 0 0 0 0 0 0 0 0 0 0 0 0 0 0 0 0 0 0 0 0 0 0 0 0 0 0 0 0 0 0 0 0 0 0 0 0 0 0 0 0 0 0 0 0 0 0 0 0 0 0 0 0 0 0 0 0 0 0 0 0 0 0
label 0 1 2 3 4 5 6 7 8 9 10 11 12 13 14 15
nr_sv 1 1 1 1 1 1 1 1 1 1 1 1 1 1 1 1
SV
0.9 0.9 0.9 0.9 0.9 0.9 0.9 0.9 0.9 0.9 0.9 0.9 0.9 0.9 0.9 1:1 
-0.9 0.9 0.9 0.9 0.9 0.9 0.9 0.9 0.9 0.9 0.9 0.9 0.9 0.9 0.9 2:1 
-0.9 -0.9 0.9 0.9 0.9 0.9 0.9 0.9 0.9 0.9 0.9 0.9 0.9 0.9 0.9 3:1 
-0.9 -0.9 -0.9 0.9 0.9 0.9 0.9 0.9 0.9 0.9 0.9 0.9 0.9 0.9 0.9 4:1 
-0.9 -0.9 -0.9 -0.9 0.9 0.9 0.9 0.9 0.9 0.9 0.9 0.9 0.9 0.9 0.9 5:1 
-0.9 -0.9 -0.9 -0.9 -0.9 0.9 0.9 0.9 0.9 0.9 0.9 0.9 0.9 0.9 0.9 6:1 
-0.9 -0.9 -0.9 -0.9 -0.9 -0.9 0.9 0.9 0.9 0.9 0.9 0.9 0.9 0.9 0.9 7:1 
-0.9 -0.9 -0.9 -0.9 -0.9 -0.9 -0.9 0.9 0.9 0.9 0.9 0.9 0.9 0.9 0.9 8:1 
-0.9 -0.9 -0.9 -0.9 -0.9 -0.9 -0.9 -0.9 0.9 0.9 0.9 0.9 0.9 0.9 0.9 9:1 
-0.9 -0.9 -0.9 -0.9 -0.9 -0.9 -0.9 -0.9 -0.9 0.9 0.9 0.9 0.9 0.9 0.9 10:1 
-0.9 -0.9 -0.9 -0.9 -0.9 -0.9 -0.9 -0.9 -0.9 -0.9 0.9 0.9 0.9 0.9 0.9 11:1 
-0.9 -0.9 -0.9 -0.9 -0.9 -0.9 -0.9 -0.9 -0.9 -0.9 -0.9 0.9 0.9 0.9 0.9 12:1 
-0.9 -0.9 -0.9 -0.9 -0.9 -0.9 -0.9 -0.9 -0.9 -0.9 -0.9 -0.9 0.9 0.9 0.9 13:1 
-0.9 -0.9 -0.9 -0.9 -0.9 -0.9 -0.9 -0.9 -0.9 -0.9 -0.9 -0.9 -0.9 0.9 0.9 14:1 
-0.9 -0.9 -0.9 -0.9 -0.9 -0.9 -0.9 -0.9 -0.9 -0.9 -0.9 -0.9 -0.9 -0.9 0.9 15:1 
-0.9 -0.9 -0.9 -0.9 -0.9 -0.9 -0.9 -0.9 -0.9 -0.9 -0.9 -0.9 -0.9 -0.9 -0.9 16:1 
